0.6348541718302914	0.794808995226557	0.5101432516988613	-0.2733148314186533	-0.23635550394898408	-0.7571369984287963	-1.074792861203312	-0.27010611826854314	-0.7231635317944354	-0.7084428627073929	-0.4172918407254864	-0.845826742572044	-0.7337679389378362	0.5621004994299098	0.46604038336319864	0.5327162380536289	0.29357152722674607	0.8918433271844745	0.7526359346893785	0.7363883799901462	-0.6715408714496303	-1.029610720603521	-0.545453054294608	-0.6109362211919231	-0.7135408399651311	-1.104865341021291	-0.4124021607796631	-0.20709230021069308	0.822729886188578	0.6093018630603432	0.4139779210174324	0.33449477768703817	0.3643965605936806	0.83654858511105	0.4138945741664837	0.3323771650520301	0.5342905946088284	-1.0974617344645834	-0.33096607020590413	-0.5891705020259832	-0.6696192072177125	-0.5214405578128387	-0.23439755240689875	0.8237895520480081	0.7322244062281746	0.10048635897800108	0.819217797641048	0.7513698959732447	-0.5692394995015138	0.5563998456697996	0.7527560229208251	0.9109701287556512	0.16597794471965543	0.06722953932165066	-0.2499077341232358	-1.0600669493648534	-0.8654038385981231	-0.7560340283397753	0.520188907800739	0.7930783025740707	0.7108309138203506	0.9708236802157116	0.8647134658855061	-1.1371337261329932	-0.6355577036774709	-0.7616844931213764	0.009797626951838612	0.07833891167814333	0.5167721015553489	0.5293314761272324	0.8371800569702031	-0.7173369330465427	-1.0030422728904995	0.18857898547914176	0.25068293680252934	0.49587070459565114	0.06893671762829666	0.2768852043633717	-0.7051862473207349	-0.20220502859868117	-0.4988238693317561	-0.4664498700062249	-1.140040672663797	0.9567174638864826	0.5827706193961874	0.41188223050075434	0.18708827273817488	0.9041987615539226	0.1202657829416435	0.8712259077606384	0.0673866861416077	0.4992919704464482	0.22420222916591506	-0.7183201841795535	-0.929514495472721	-0.4669285127988276	-0.33017138879887586	-1.1965399958662088	-0.793301896379575	-0.8044323890963563	0.9693032371169726	0.8217672271331511	-1.0232627437511193	0.5828998528301795	0.0957451183852849	-0.2871498057012788	0.7856536314999178	0.3637790205841444	-0.9368855260136675	-0.860579849153448	-1.0106825449968369	-0.2823559095630249	-0.6913446018594225	-0.7656915649594167	-0.7155145192196688	-0.7196187256354294	-0.33283965441351493	0.9971261403486581	0.2951613602185162	0.7958718614839095	0.38532764986440937	0.7051362590676901	0.1894360632818561	-1.0212561671311933	-0.44971282890145536	-0.29650241317552994	-0.5430870337252952	-0.5571299771477697	-0.4677648309067634	-0.9387337417573645	-0.7447148906042536	-0.4893729232953922	-0.4506572814918511	0.09483926061978339	0.418024963659238	0.8924049950108747	0.6884734472773705	0.7859878181036317	0.9981198341147662	-0.2455524004650817	-0.6023689694136698	-1.0695830496081686	-0.8467974776536606	-0.9150985317853182	-0.3011945792447347	-0.3907551902905227	-0.661881088887361	-0.29961078214812686	0.8118175552631047	0.2025496192640141	-0.7326114684271006	0.579639214371311	0.4300666450504558	-0.9213376130700355	0.6067726378919769	0.6723092493407605	-0.9516905322994991	-1.013402983961034	-1.130073413295711	-0.7282180342902336	-0.5096856384317958	-0.8848115029017725	-0.8791288839097686	0.12320071933620544	0.9522022248162074	0.7491071497173729	0.13721347565599057	0.5837067134699038	0.5623076535300457	0.9472046346168	0.1755752519745356	0.4738979208727697	0.9481087080842389	-0.7171530837881224	-1.0231899145925674	-0.9983227027055401	-0.5333038042206962	-1.1301794646408838	0.4133061125641083	0.9813929461472978	0.9259615494815757	0.6215107796968039	0.08482498890175649	-1.1921736850561622	-0.4526738560391972	0.861210941468638	0.9072396818892637	0.3104842880986908	0.4455175974516975	0.9440622338712438	-0.44656684006840575	-0.2982554707892072	-0.6728473207922601	0.9855414111392089	0.599147168345423	0.07436974000810158	0.6683605069532133	0.2720443203014046	-0.41732421065350955	-0.4433920685026147	-0.8897041701164496	-1.135398183436796	0.770070568531141	0.8562954877434108	0.48826253428453903	0.1071469436611947	0.8251688924759177	-0.9933873002771356	0.6712025479959284	0.14124723250421597	0.8405983337188422	0.668325764135636	0.06664174133601831	-0.9580216669928991	-0.5616878800541591	-1.0035834117580715	-0.2591661778123016	-0.8438885212420713	-0.6102075154365598	0.39298448596172864	0.06209859174603242	0.19481530468000913	0.352283859798095	0.960472475006412	0.9379904931120067	0.32739699289859314	0.45280020509636254	0.4991521185560813	-0.961870118647304	-0.42033771860021285	-0.7568587408072087	-1.0626805658198906	-0.7191038667572873	-0.36252243391450534	-0.9906747628318102	-1.1065851051398323	0.737932568312758	0.8601360956999325	0.15610666823381653	0.8889351085659917	1.01177649318959	0.28846715117801686	0.6324496244850321	-0.22061232041375584	-0.5154014733735149	-0.7530013483675453	-0.2566755298836204	-0.8196097667967928	-0.23388375309059806	-0.4338739079251205	-0.9849885099145979	-1.029197261134557	-0.32376273361906194	0.14761310067286748	1.0521616496198947	0.5138328314690692
0.5306153609305969	0.589820071991606	0.7381250291988165	0.18408180265800314	0.35142017797495484	0.9018364809352615	1.0458261696331552	0.31076799773373504	0.691845925837475	0.5015560212053505	0.36156643148075623	0.33342324402412404	0.26852689339774416	0.1963944574627826	0.8902792548640175	0.3457699380299804	0.865370246586961	0.7879576857052903	0.17711132895961051	0.8904544545760283	0.9043337410974323	0.9313030058794686	0.6766620045948188	0.5430534616503908	0.5474292885679346	0.5536102730387806	0.7698937674219355	0.9573258746991993	0.7526795725112949	0.22878661756248656	0.3687096017547203	0.6289146583311461	1.0194922559207318	0.43072937732496985	0.49951083884006847	0.4620902738956111	0.7853986794567356	0.5735028980903213	1.025709159774365	0.767189655002765	0.826652187551105	0.7674327307836931	0.7766450974465064	0.8419675710367703	0.40181912564547895	0.6485015398300545	0.42545995105062334	0.9953586078799557	0.9271499954438079	0.11750071944957932	-0.5014630190007066	-0.8530416628570039	-0.7973937088693346	-0.8528727790050759	-0.2885738274578261	-0.7234259110142733	-0.6499463877338374	-0.3076305236795914	0.760207352265982	0.9835132431946271	0.6556560880183208	0.5968631100169882	0.7166925978446698	0.39952264367463447	-1.0626090710502185	-0.921853263438253	-0.33900149608787966	-0.8201215672425584	-1.1286394194034632	-0.6816530239044669	-0.31657619576445784	-0.5029133525403127	-0.744314152205027	-0.5707139816559195	0.5183822061196199	0.7394461438775564	0.26992856195385123	1.0398477774801265	-1.0545823955714564	-1.010601663041731	-1.1755321593530026	-0.3680566612156167	-0.5919814759281499	-0.7298664655053311	-1.1919536758044245	-0.5913291725202665	-0.9667467815423854	-0.7333146350099411	1.0030054321614892	0.32872402499040115	0.45298021734719374	0.6243896250608509	0.7266940822089104	-1.1916728284738092	-0.47673318134915815	-0.7274314482250215	-1.02255390792916	-0.8678495388336955	-1.1606281704158194	-0.36192141036194064	-0.32794847246117975	-0.5975182105322265	0.1257138946860784	0.6233348402800142	0.31166519246825947	0.4673143357670998	0.48119358760400505	0.3474752674916637	-0.48317924338558343	-0.4199553763076307	-0.836822177683523	-0.4710008659058113	-1.0627167899284256	-0.8068004127889392	-0.6878147384846431	-0.5997840773171546	-0.9526443098662161	0.8873143505005843	0.3196487654120744	0.6145758086764743	0.39493423313373655	0.5819636021947149	0.3494905009249211	-0.6078028960275887	-0.34390383674822284	-0.27492927040881127	-0.3407316805642134	-1.0912365562300905	-1.0662802047135342	-0.5083280863521562	-0.7928675537453138	-0.8874993747530326	0.5027402204357837	0.40328105206943865	0.5415408047312427	0.43087866457696516	0.4245505103683754	1.0259115912094474	-0.41947910526601473	-1.1754639235483597	-1.1766072475141394	-0.4897392996801457	-1.1922515515434131	-0.4782425533892775	-0.9504216316434877	-0.46908541712953705	-0.29585680567505623	0.8009915484433867	0.7691089860858522	1.0190939082671187	0.9810932781563225	0.8251990733458938	0.7117188484425544	-0.6881729786866535	-1.041163515335074	-0.3869015545192181	-1.0867221880025006	-0.8108125837338063	-1.1290251603653148	-0.21031656801008403	-0.8231807401096891	-0.46352541454109336	0.6379389545283358	0.47949069142286715	0.3175925532660043	0.28613739169053687	0.3833114343464067	-0.6548359860565494	-1.0667260507029404	-0.41140975828300275	-0.3693948918779442	-0.7399685143112689	-0.29852978984821765	-0.2703133671318782	-0.6106789585989791	-1.1168471433778426	-1.1818644362265736	0.44209201476790694	0.4897579593143762	0.7944548488683804	0.7711540327672662	-0.21966414767240416	-1.101982450241481	-0.6588307226824057	-0.3581987687248421	-0.7895800458254565	-0.8081284860881721	-0.6489440069978998	-1.0802165414968896	-0.6212379540949373	-0.8324695868410545	-1.076310493178635	0.8622103657984017	1.0395815103108819	0.2712946467116598	1.016060291740652	0.9901530357087076	-0.6173460819650194	-0.9767941044371591	-0.5839939355982311	-0.7431411102077274	-0.5962584862097338	-0.8183629684282128	-0.8924421877512427	-0.4076497135748478	-0.8255098094050439	0.4945968977373965	0.24048109946215024	0.45961019500779954	0.2790094316040051	0.2838927596077584	0.5022133382706077	0.8164966296247141	0.3363360083440284	1.0076482479508782	0.8410341615153654	1.0534455601778718	0.24031727616777163	0.6716673689548599	0.8867845740823893	0.34862785644112454	0.9893798028173753	0.20526636456531655	0.5732094011296059	0.6099073569865557	0.9319553538240679	0.795062315487888	1.0485820090000968	0.876891753318888	0.7676040494331972	0.3751477298602825	0.8858951951002527	0.7334365013731202	0.30404850384698556	0.24920539438992895	0.27588651348848253	1.0138692689805202	0.9504907201389315	0.5927844828714162	0.16968326453594548	0.3943040337892883	0.7969094128424566	0.6907628268844057	0.4321182923825499	0.22541838050225313	0.2779054803643245	0.504226080543564	0.3410310193699138	0.4940065618088902	0.6979484390676296	1.0156430986508609	0.642534838163403	0.9849631439483046	0.8458113701110842	0.2611996042769957	0.5103283618360192
-0.4457202386548548	-0.6995006391139507	-0.36116054812650483	-0.9710766651382758	0.9823882569123488	0.5649649053201518	0.6990433994312528	0.39536192599721115	0.17506827202132424	0.4455989014686182	0.1467269471920424	0.08014630134316526	-1.1626464468583373	-0.7604399308925385	-0.9604728040581265	-0.9018654391457681	-0.38409898079826765	-0.8274445278740805	-0.3467583035550961	0.5379685632385987	0.6799904097193873	0.5017490268072415	0.24209000668982092	0.4064760642304655	0.5697457724664021	0.05782999144488681	0.8863567566094843	0.5590739296960651	0.9147214411481093	-1.1620777601753536	-0.4168852485561547	-0.4106243104674159	-0.1730344468736944	-0.897365413779496	0.3757268685120682	0.3884915892258411	0.12285166041349223	0.28480721511459095	-0.49436158596580476	-0.20339394010700285	-1.0483232595971208	-0.34584471404030387	0.7754822459759884	0.804254443367885	0.8517474842929416	0.8050974275999814	-0.4900630893912209	-0.39694599037202694	-1.063458489094486	0.476378815867067	0.4868108645870366	0.022338940718374833	0.6220574656535308	0.8159222533311439	-0.9687291381539351	-0.7171582048204745	-0.783621637960503	-0.847342921695116	0.36686249626852135	0.14916590677192818	0.6919344353269837	0.19735893156950407	0.8581065668589072	-0.33851004266375273	0.13966243354328522	0.1477312063245333	0.2474771969645474	0.1885494331453511	0.5799295726561123	-0.540145965165982	-1.0779234155794657	-0.3984546814062487	-0.7615715179800109	-0.34780432081674234	-0.9533569667824486	0.47485936762901476	0.15324679385557644	0.8984559940878055	0.42629404690436756	0.7211267951828656	0.8901196194299771	0.2615848663662476	0.8319852274819262	0.3051749203538411	-0.8743004255568771	-0.4493977179895996	-1.1949325236725958	-1.1001005830707749	-0.5807395444552568	-0.44662308017767005	-0.35108831469931456	-0.8271027405588243	0.5813663794430709	0.9518058331191757	0.1983948462975053	0.38849405587357255	0.3096353544465126	0.4586069057606963	-0.942603952600084	-0.800092710847391	-1.0562873948111569	-0.8379861322494675	-0.445715507669848	-0.5001999643100352	-0.944972359623264	-0.765419703862005	-1.0976917622084603	-1.0189070757401555	-0.687737582389492	-1.0670988975727802	0.942769182608322	0.9231910605345741	0.2505285901683695	0.09606101177804904	-0.8750967172651545	-1.1386397512640274	-0.7567169688632707	-1.0684317838010007	-0.6529775885604934	-0.5089385552488432	-0.21630051076737744	-1.1110772700681961	-0.9681579266401885	-1.1302314174322232	-0.9624004269586446	-0.2607251250796467	0.6496895587933541	0.7477502247612461	0.28293363295693025	0.6488974750196911	-0.8054772613385763	-0.8413443737618516	-1.0319867341305602	-1.1483900651010555	-0.7324185989883882	-0.5808499836364593	-0.8939671500742852	-0.622200885991286	-0.6596001812772583	-0.5246349282336494	-0.5487007903070998	-0.45117883226390054	0.36239398083262875	0.3353983154845197	0.8093694354359298	0.0864994658846866	-0.5907505607078425	-0.5904716226486768	-0.6665169093885848	-0.4135379934056086	-0.19987076950533478	-0.8933283426879872	-1.0371921044576222	-0.9581317356902703	-0.9606071340131219	-1.1441709432676754	-0.49814256496402337	-0.9021167923081761	0.9558363850847016	0.7068705713400997	0.8563140795599049	0.3716486000517226	0.39527085084417046	0.7220514950176727	-1.1131759107834756	-1.0137150012163751	-0.825694199514533	-0.5850361281161154	-0.799849070795664	-0.3116602001141394	-1.1711162560944761	-0.7403512292080605	0.6634272861149787	0.10221393492716005	0.6426870628300393	0.11912226917712454	0.3463492241423346	0.1777445416601937	0.1982742508359525	0.6852800370152977	0.7325481318234749	-0.8623087728088243	-1.064677253733986	-0.37865991968998364	-0.4046392294240577	-1.099275571466567	-1.1389379900677055	0.11070054730139456	0.64209136239718	0.33803329508118385	0.1276518906812908	0.21059843588144755	-0.6863395533009868	0.7459245389053049	0.7671885773460717	0.4956687791003522	0.44475917994096165	0.9290946110742737	-1.1524325480677002	-1.1053602935944555	-0.5941026433738865	-1.0698043910740522	0.7672510447550817	0.6577965527512885	0.8204780888449692	0.9490418589514101	0.7908461306351247	-0.2851133649288301	-0.9292180832310133	-0.3310127255560015	0.15288555795534492	0.42689086398521847	0.3199282708396779	0.7589772403781045	-0.5890684357541887	-0.46747831824375596	-1.0972607510864911	-0.8453459042721216	0.7926547742572436	0.3466219626734013	0.9778497581937798	0.9383263466359669	-0.6562286029288047	-0.6771032125822491	-0.21991928646029013	-0.19652989796668985	-0.9897422256176294	0.9222382418925115	0.20757815213656686	0.8188657351764688	0.6415970908014507	0.9456367629615241	0.9523919114448478	0.8642149252413335	0.9488530220600331	0.7221220223873315	0.04715638657040379	-0.6644164901615832	-0.5907478143916385	-0.5509100581316031	-1.0518516471223454	-0.22956151485042803	-0.7061315927026839	-0.5692671535271796	0.9052630199618203	0.5309396220516264	0.7489153687467084	0.7107755582801425	0.705096214594551	0.1537358387568478	0.8565956930996241	0.5121757301804458	-0.848526724836483	-0.9265016807705675	-0.6014922382657228	-0.9200267916370644
